-2.154747
0.520839
0.182131
0.109602
-0.263850
-0.023521
0.544580
0.103022
0.346987
0.432072
0.144962
-0.075726
0.213630
0.248129
0.114836
0.253377
0.031307
0.130156
0.054010
-0.136323
0.306557
-0.119454
0.097451
0.104346
0.170800
0.236698
-1.958269
-0.031490
-0.379471
-1.118304
-1.063448
-0.216046
-0.151975
-0.695204
-0.919622
0.612393
0.421718
-0.892946
-1.613895
0.025346
0.117104
0.026582
-0.753654
-0.568460
0.142129
-0.389688
-0.009557
-1.252095
-0.045341
0.087029
0.605061
0.521517
-1.329215
0.031661
-0.611080
-0.261347
0.040972
-0.769712
0.509220
0.185429
-0.049958
-0.146030
-0.789068
1.259645
0.053240
-0.150392
0.168786
0.352540
1.035032
-0.322398
0.320918
0.172200
0.929148
0.705481
-0.280608
0.493301
0.488172
-0.297838
-1.304720
0.284316
-0.311984
0.091298
0.384359
0.144361
0.219420
0.480532
-0.051409
0.291386
-0.228217
0.338311
0.022810
0.148746
0.079914
-0.453963
-0.018779
-0.422848
-0.001366
0.221546
-0.110202
-0.165744
-0.296305
-0.154218
-0.155296
-0.853436
-1.041252
0.097390
0.399046
-0.062248
0.072679
0.090153
-0.510242
-0.164963
0.009283
-0.401230
-0.341968
-0.617931
-0.021800
-0.174754
-0.042642
-0.467175
-0.129383
0.012826
-0.389171
-0.210774
-0.099249
0.577243
0.571337
0.425037
-0.067539
0.353915
-1.730437
-0.195540
-0.561735
-0.593236
-0.692253
-0.166518
-0.098057
-0.081189
0.408643
0.246231
1.468493
0.314797
0.256799
0.592100
0.606138
0.712264
0.448457
0.675372
0.276624
0.184407
-0.516482
0.111519
0.275191
0.250404
0.325078
-0.378755
0.743829
-3.131580
-3.158880
-5.670587
-4.038112
-0.605283
-2.802727
-1.126549
-3.307305
0.324680
0.276625
-0.094829
-0.092961
2.669157
1.194332
2.401167
1.180088
-14.877016
1.828644
-0.203669
4.679402
7.083800
2.413992
5.631257
3.107621
3.689028
3.159433
4.590260
2.238336
4.474264
0.958390
3.425829
0.229536
-1.107934
1.054416
-0.631882
-4.172276
-9.734918
1.017255
3.384832
-7.573589
-6.800053
-0.293783
-4.569869
0.623966
3.370681
-9.933454
1.307129
-0.008361
2.940977
7.239875
15.003261
10.278503
5.806235
4.604875
1.292219
-3.720824
-1.064482
-5.667931
1.562292
2.931710
-2.402493
-0.884378
3.238688
1.376033
-0.086348
-1.777515
-1.118131
1.762688
2.684276
2.906960
2.155128
-2.509761
-0.348921
1.096561
-3.509223
3.156306
4.865438
0.640582
-1.726560
1.637437
-2.637902
-2.259730
4.462636
5.474497
3.946596
10.837614
-3.050201
-8.913620
-6.416204
2.185153
0.841691
1.208040
2.807710
0.196665
3.467332
0.394306
1.764837
0.473974
-0.020648
-0.168181
-1.195086
-1.915416
-4.710192
-3.449599
-3.633355
0.894069
-4.670575
-0.404848
-11.564123
0.621482
4.654150
1.144222
-3.495542
-2.934743
-0.849384
-2.135777
1.467450
-1.263224
2.236899
0.554494
-3.166669
-1.090121
0.620037
2.701104
3.862107
0.685861
-3.207622
-5.612524
0.933175
-1.229214
-2.362258
0.004998
2.717338
-2.576532
-0.187906
-4.483900
-1.756445
-0.921881
-2.001391
-1.218297
-7.239647
-8.524612
-3.447100
-2.767934
-3.727031
-7.602960
-2.549363
1.065898
-3.583814
0.154302
-2.253982
0.201260
1.768006
2.700731
-0.974124
1.238671
-5.720715
4.272242
1.661565
0.200214
0.109759
3.634825
2.046090
-2.621326
-4.575481
2.121933
1.783553
0.383869
-0.614510
-4.357341
-1.109932
-4.994389
0.881020
-2.104582
-2.165263
-4.217957
-1.252214
-5.353505
-5.342888
-2.947787
-4.265170
-4.069509
-3.248772
-4.199079
-3.214831
0.199201
-1.048630
-1.598578
-0.423061
-1.079927
3.282245
1.552109
-3.641603
3.742859
6.013535
6.405428
4.878057
0.664517
0.773811
-1.290237
1.020580
-1.946566
3.681226
-1.308473
0.210161
1.163219
-0.100549
-2.559248
-1.377534
-0.048025
2.388376
-0.597478
-2.962749
-7.222390
-5.303552
-0.593025
-3.378312
-2.164411
-2.227129
-2.223071
-7.099620
-4.562391
-5.316574
-1.017029
-1.127765
2.023864
1.420796
-0.223744
-0.731867
0.299622
3.691696
5.651884
5.620862
10.523510
0.059425
-2.850122
4.914659
2.805272
10.395247
3.404038
1.249869
1.572379
-5.744342
-0.139829
-5.509562
-0.638336
2.124895
6.783939
-2.562797
7.811514
4.209996
2.272609
2.796476
3.762657
-4.473256
-2.395007
0.944652
0.725752
0.220878
0.930702
-2.140632
1.288152
-0.210527
2.448960
0.666756
2.417564
0.821237
14.305401
4.915252
3.094742
0.641662
-1.582318
-8.440022
5.855422
4.358880
8.506943
1.855286
5.237034
-2.900595
-6.627542
-6.516999
-2.045722
-3.586815
0.657275
-3.845402
-4.393431
-8.545798
0.485480
2.098931
0.050549
-5.714895
-2.124732
-1.764564
-1.754394
-4.885168
-2.822969
-5.898705
-1.084731
0.365844
-1.001959
-4.495486
-3.151411
-4.793359
-4.516686
4.022383
-2.710823
0.726589
-2.558033
0.823781
1.180457
1.728049
-1.439033
1.388473
0.715483
-1.177083
1.077148
-2.312455
2.355655
2.687113
1.250550
-4.612813
-6.277010
-3.659701
-0.608705
1.008691
-2.337357
-3.062863
-0.920799
-0.166956
-0.386257
3.168087
2.577095
2.310664
-6.584626
0.469130
1.216624
-0.087777
0.715063
3.007107
3.171174
3.475244
1.849875
2.519584
-6.128629
-7.222249
-4.339090
-3.124486
0.575855
-1.541187
-1.543947
2.976383
2.530384
1.424443
-1.497229
-0.263763
2.274685
7.056782
-3.814319
1.027986
1.896606
-0.360070
-0.911476
3.711929
-19.638832
-0.876272
-0.368732
-0.463725
9.135370
0.652995
1.620632
-1.817447
-0.946454
-1.790161
0.421169
-1.827448
-1.058647
1.750813
0.767085
3.579321
0.198630
-8.341416
-10.218296
-3.242807
-0.286004
2.169880
-4.188336
-4.172927
-8.397953
-5.682453
-4.588167
-0.761307
2.924230
2.025004
-2.215566
-0.516982
-0.390730
-0.609632
-5.239172
0.151247
-8.293477
-0.353789
2.354897
-0.839186
-0.789902
3.651747
-5.424856
2.839675
-6.212538
2.532300
1.742962
3.205851
2.852749
0.512900
-3.438051
3.265773
1.893589
0.810683
-0.050408
0.850640
0.745857
1.450146
-2.801389
-5.401872
-1.999875
-2.797719
-4.535990
-0.173396
-0.443423
-0.351603
-6.406861
-6.493860
-1.488791
-0.551307
-2.058299
-0.481891
-5.611937
-1.705693
3.073538
1.380599
3.794078
-2.614558
-2.616860
-0.408214
-0.463748
2.958446
5.439722
1.257768
-2.205747
0.967768
-2.746292
-7.505208
-2.913754
-5.521317
1.827316
1.589203
1.783733
-6.795018
-2.312434
-5.027616
0.883690
2.732367
0.477091
-2.178878
-1.751281
9.234609
5.753420
0.251382
-0.354278
-2.265989
-1.499368
1.505159
3.298494
2.842834
-2.416711
-3.972207
-0.868395
-3.037563
-5.119650
-1.754075
3.321787
3.368280
-5.017118
-0.461969
12.050315
12.971697
6.288316
-0.323621
-2.557369
1.769048
2.022470
-1.904978
-4.252109
-3.692148
1.201131
-1.047266
1.126514
6.846805
3.257287
-1.762141
-3.482369
-1.618210
-0.854670
-1.315609
-0.591184
1.072729
0.892405
-1.462247
-0.753308
-1.137300
-1.784409
-2.654966
1.909453
-3.702434
-1.230669
-0.416745
3.130732
1.267529
2.034201
0.337319
2.820683
3.598951
7.472683
0.709548
3.095793
0.856765
-0.300603
1.927052
2.536824
-2.994538
-1.260604
-2.294893
0.967514
0.231195
3.378388
-0.943788
3.612260
5.124121
2.635605
2.374390
-0.087785
-4.290216
0.868900
-0.776424
-1.843057
-3.544704
-0.240008
-2.334915
-6.892251
-8.064916
-2.005325
-3.133546
3.791622
5.236164
-5.961246
-3.475518
-2.254144
0.978976
3.101753
6.603607
-3.271719
1.211555
-0.846765
-3.277236
-1.091256
-9.115494
1.509960
-0.708976
-2.773085
-3.033628
-5.010267
-4.829213
-0.724865
5.126931
-0.044530
-2.837302
-6.238569
2.904485
3.800329
7.930843
0.581397
0.724329
1.708274
3.930691
2.760501
2.929609
3.767126
-0.142978
0.933172
2.478415
-7.248199
-4.094168
-1.000121
-2.894093
2.515983
0.086252
-2.730736
-3.645473
-1.083768
-6.027112
-3.307621
-0.047516
-4.388076
-1.274007
-0.264577
-1.944594
-1.935136
-6.610306
1.440266
5.593666
2.582544
-0.629869
-5.686769
-0.517949
-6.369507
-2.489020
-2.401121
-0.508765
1.189231
7.770114
-0.844658
-2.097583
0.139643
-0.743042
3.574893
7.172092
0.023410
-0.356553
2.561006
-0.426646
1.017603
-0.151967
1.947195
0.377371
-0.015399
-1.635385
-4.908584
-0.967216
-1.055451
2.746201
1.608908
0.900138
-3.036240
-4.023192
0.322948
3.230647
2.240402
-0.603732
-2.709085
1.359805
1.863636
3.688192
2.046639
-0.857716
1.458190
3.485968
-2.901080
-1.889813
-0.631242
2.156314
2.899192
2.522027
-0.696114
1.852655
2.232751
0.023742
-1.337305
-1.178883
-12.259846
-0.573531
-4.133660
-4.311869
-0.203415
5.761925
2.192173
-3.018186
-6.598897
-0.402873
0.663136
1.731568
2.030941
-2.923076
3.609471
-1.397570
-5.778094
-3.180109
-2.949208
10.151999
6.438239
-0.180670
1.364966
3.387503
5.240620
2.882059
6.515331
5.127618
3.893520
-0.915263
-5.368073
-1.046627
2.007855
6.169471
-5.204456
-4.369493
-5.459924
1.288441
-1.607176
-4.481061
-5.224888
-1.860346
2.388330
3.222635
5.238032
6.973357
1.893249
-2.510026
-1.073541
-8.181087
-0.874154
0.279110
0.479559
-1.524036
3.503482
5.753745
-4.261068
-4.049150
4.971911
2.908958
2.261460
1.425358
-0.048670
3.651064
2.907041
1.273862
-3.844973
3.749949
1.722874
0.597902
-1.867840
-4.150838
-1.219729
4.352339
-2.186900
-2.103418
1.380029
2.460396
-3.191479
-0.824149
3.237896
2.069440
0.098441
-1.588680
-4.717725
7.915744
3.010030
0.615132
-1.713957
-2.609602
-2.702022
1.467576
0.440426
3.903483
0.591097
-1.159136
-0.200321
3.487099
3.065058
2.460710
-0.393575
-3.701410
-0.961180
2.178488
-0.390154
-1.460999
-2.492826
-7.986639
-5.460976
3.446948
-5.188954
-2.650903
-2.435040
-3.943242
-2.530952
-0.015596
-3.318167
1.221425
-3.463946
-6.050180
-11.308177
-1.481298
-1.514305
3.127267
-0.360490
1.146618
-5.195415
-1.878524
0.280869
-0.565279
-1.769930
-2.721125
-0.154557
-3.224336
-0.687277
2.319322
-0.064215
-2.194150
-0.287653
0.890117
4.947477
3.582641
3.075425
0.416144
-1.091392
0.340562
-1.672375
-5.773062
-0.090574
-1.945327
-1.699272
1.380556
1.042036
2.436277
-1.599509
-6.041179
-14.959156
4.049158
1.622887
3.087781
1.983053
1.651234
-0.730512
-4.964158
-2.258950
4.573239
1.838402
-0.597378
-10.998013
3.598197
-1.582774
1.388518
0.112612
-5.382506
-6.812701
-0.029221
-0.544952
3.690320
0.993854
-0.143169
-0.857158
1.887941
-2.465763
-1.238205
-0.870065
-1.577753
2.093122
2.807463
2.580967
1.793678
-2.276224
-5.211812
-5.511094
5.119309
5.060284
2.702687
0.979216
1.027297
3.393050
-1.969375
-1.071706
0.887602
3.083980
1.887513
-1.733009
0.400551
1.130496
1.421421
0.589814
-3.355225
-11.410247
0.334616
3.046341
1.381077
3.356122
3.129029
-0.966831
-8.242674
4.336078
5.381187
0.176340
3.744473
1.200535
3.861523
8.552348
4.917563
0.676188
-2.845813
-7.081411
-7.559761
6.235765
-4.442741
-4.261859
-3.089987
-7.982255
-4.215577
3.399091
-5.348270
0.990793
-1.979960
-7.509241
2.142660
4.055714
0.834034
6.027727
-5.160541
-0.192140
2.058132
9.223015
-2.090064
-2.581517
-4.689353
1.036986
4.545613
6.515655
3.537768
-4.807091
-2.709180
1.257431
4.460470
2.186733
-0.472458
-4.097291
-8.412971
-6.941381
0.239223
1.568659
3.832111
0.301397
-4.489640
-5.644310
-1.881939
-2.554468
-2.014401
4.721989
-0.752460
1.723408
-1.710501
-0.259928
0.172204
3.921691
4.347819
1.041579
-1.986052
-0.819059
-3.443550
-0.502602
3.370329
4.918856
5.643973
3.606032
0.660585
0.450506
-2.015368
-3.824231
-6.926892
8.367505
-0.983284
-2.574368
-2.722572
-4.429067
-2.391637
3.128052
-7.815328
-1.218719
0.566016
-9.171334
-1.078593
3.093159
2.920048
3.299602
2.983250
-8.441993
6.906824
4.903851
3.458661
0.150036
-3.724974
-1.012820
-0.608490
2.974251
-1.426382
-6.167249
-1.083657
5.342237
1.778657
2.893584
-3.563815
-1.976834
-4.384966
-6.551291
-2.332307
-1.260390
-7.919977
-5.609839
-1.546792
1.338161
2.446157
-1.580798
-0.821552
0.710512
1.276712
2.755141
3.321850
3.872780
0.541466
-1.021566
5.233427
6.663385
3.436360
3.934451
-1.799765
0.003473
-1.239967
-2.633906
-4.198718
5.449565
-5.325835
-9.015310
-7.331943
-0.818165
4.741164
5.200187
1.673761
2.182665
-9.006809
-0.704202
-1.662694
2.443075
-6.062930
-11.046429
-10.722740
-5.736620
0.277967
-3.844876
-4.532142
-2.314301
0.199752
-2.120479
3.021956
5.671280
4.031451
2.135937
3.772471
6.052314
0.309803
2.098831
3.580528
-1.175270
-1.239612
2.137818
-4.366245
-4.478340
-1.606577
-6.769516
-5.109737
-1.043716
0.962943
0.180875
7.423492
4.244551
2.082429
2.254605
3.560392
1.189453
-1.233464
-4.789106
-5.289191
-1.472221
1.342678
2.441439
-2.010984
-2.096941
-2.738249
-1.135335
3.821707
-0.539402
-4.500353
-0.925928
-3.235237
3.356836
3.288572
3.904383
3.073745
-0.660481
1.117825
0.351379
-2.733009
3.870381
0.414066
-1.773188
-7.286209
-2.116620
-0.895304
0.002955
-1.085927
1.895187
2.658559
-1.762666
-5.379108
-6.496427
-3.535008
-1.049986
-0.484858
-0.757730
-7.079363
-9.033084
2.267432
5.239901
1.462135
7.928535
6.963803
8.271297
-1.618218
9.953122
2.093888
8.687065
6.394800
6.542040
-6.467634
4.247884
2.089703
2.485664
2.816207
-0.627198
5.364742
-2.598987
0.324251
6.957762
-1.772870
-2.825219
-1.214241
-5.217257
-2.415460
-0.285414
-1.667936
-7.570669
-2.222362
-6.246862
-4.295848
0.334207
-0.641128
-0.487030
-0.053493
3.360069
0.439406
0.518440
-2.195934
-4.550806
0.229684
2.341997
3.179604
0.389089
-0.572656
0.851973
-5.402408
-3.025465
3.251911
-5.611755
-0.533362
2.852580
-0.015060
1.015722
0.116185
-0.793622
-0.093746
2.150634
-0.431098
-1.279886
1.619686
-0.909808
-2.153558
-1.786981
-2.345135
-4.501870
-1.835149
1.610989
1.090695
1.564818
-6.597676
-1.670624
-0.099756
2.133539
3.939996
4.101965
7.176199
4.400189
1.580900
2.082065
2.549334
-1.617119
-0.487318
5.686100
2.239221
0.476143
0.214807
-1.833556
-0.664539
-3.655919
-2.640586
-3.920281
-3.403245
-2.043047
-1.374182
-0.840521
-1.358097
1.011924
-0.780400
-1.110397
-3.541660
-4.444620
-2.568196
6.168756
8.964571
8.504127
-8.384895
-0.768498
-0.871913
-2.331223
-1.744581
6.825533
3.686944
3.275490
-1.626803
-3.143976
-5.281271
-7.264657
-3.299851
1.300471
5.963181
0.298236
-3.721869
1.997769
-5.373865
-1.605246
1.903632
0.465270
-1.679652
0.884598
-0.356178
0.022484
3.583791
2.389373
4.687966
-2.960578
-5.190602
-3.903072
-4.953363
4.618933
7.397046
5.157320
-4.516533
-1.851451
-0.141423
1.462365
1.928751
13.441058
2.932288
5.201724
2.033975
-3.985187
-6.650750
-4.241382
1.510016
1.700739
1.686286
-1.598056
-5.620969
-6.752864
-1.479169
-5.215408
2.627166
-0.686058
-2.189216
2.258213
-3.487785
-0.812228
-0.669717
0.841311
-1.585254
-2.960060
-1.446836
-3.482486
-1.687109
3.902217
4.551462
6.180420
-6.804438
-4.272473
-1.833478
0.683952
0.728395
4.670458
0.266913
-0.581161
0.645393
-0.557613
-1.963170
-1.151533
-0.485885
1.765155
1.489077
-0.195869
-1.241758
-7.401134
-2.616554
0.553342
0.995889
2.334456
-0.385442
1.507173
-14.124446
3.412480
1.051564
-0.150209
-2.095392
-4.012239
0.556608
2.684298
-3.541319
-5.125254
-4.938497
-0.885035
1.340202
-1.060619
-3.460748
-0.700456
-4.279561
8.663425
2.951019
-3.977730
-8.067700
0.613314
6.179002
8.736490
1.717991
2.515189
-6.532520
-7.995800
-0.852508
-0.778183
-0.082523
4.096720
1.191154
0.713853
4.254101
4.093028
3.755661
3.437723
1.730856
1.385454
2.803400
2.188674
4.172497
2.430797
-0.348935
-1.576135
-3.046958
-1.323521
-2.503192
-0.193228
-1.643973
-6.811349
-6.395647
-3.104825
-2.794942
1.288127
1.834868
-2.457685
2.487653
-1.351225
4.310095
3.523541
2.904495
3.297019
4.628255
4.136096
1.064737
1.920869
0.655106
6.755396
6.400341
-0.130922
-1.722383
3.354207
-2.726488
-1.218124
-2.666361
-3.965590
-0.370899
2.832637
-5.284920
-4.170187
-0.961779
-0.318314
2.441621
1.869383
-4.989063
-4.765633
-0.970390
6.501705
0.970146
-8.924375
-14.087744
-4.555176
-3.322122
-0.222501
-3.865258
-0.566543
-7.478170
-5.336367
1.400795
-11.110401
2.855061
3.464108
1.861722
2.273326
1.159301
-0.653345
2.738194
2.762064
-1.977023
-5.630270
-1.916881
0.066972
-2.081370
1.161173
-0.892907
-2.564456
0.808496
0.243689
-5.221508
-0.346856
2.086302
3.528326
4.400747
2.500908
2.090551
-5.706594
0.034250
-6.886548
2.026260
-5.569923
-0.315497
1.062483
-4.112421
-2.181780
-1.931970
1.319484
0.079868
2.987437
-0.413372
-2.834917
4.668653
2.099353
3.714897
3.423033
0.124305
-8.052545
-6.601511
-5.226244
0.440271
1.571882
-4.250304
-6.049311
0.292319
2.502447
2.822311
1.043164
-4.349907
-3.127183
1.741200
2.505384
-2.996987
2.375137
-3.436270
-5.093577
1.761641
-2.899366
-3.603350
-0.046661
-5.171940
0.338533
1.449963
-1.182103
0.565338
-1.200174
0.510995
0.549220
1.950010
1.417048
0.121143
3.553162
0.710108
-1.472208
-0.014810
0.962833
-0.665913
-0.050349
0.192807
-1.142356
2.635235
2.954816
0.785607
-1.322854
-3.180408
-1.131008
3.651855
3.699480
-0.010189
-1.007485
-2.927522
-2.031080
2.680845
-0.734717
-5.252979
0.014846
-7.879537
-1.169988
0.682191
1.976464
-0.566907
6.322554
-0.826079
-0.710891
2.513634
0.831698
5.720907
4.145233
2.031263
-4.613955
-4.839949
3.259416
0.367417
-2.130536
2.327496
6.581511
4.080713
1.519283
1.593061
1.902703
9.851221
3.396572
7.490766
1.780090
1.006264
2.707152
-1.130226
-4.697567
-1.089125
-2.906856
0.157212
2.668788
8.032221
-3.083376
0.316673
-5.858109
-6.444742
-2.863318
1.123668
1.646366
-8.640056
-0.797578
2.758095
3.379842
-0.471464
-5.961683
-4.868747
-0.380007
-1.158273
3.509928
-5.359597
-3.884434
3.138153
2.336628
3.047279
3.221628
3.010569
2.269834
1.136548
0.215793
-3.159939
-0.705899
-2.219272
-3.892613
-3.732756
-6.703176
2.917285
1.101178
2.207333
-1.433869
-4.417309
-3.864082
0.867098
1.932885
-1.757914
-4.854813
-5.396372
-2.437617
-2.494656
-6.841138
4.004212
-0.241848
3.335887
3.047438
2.518578
-3.994664
-0.003909
-1.425447
3.589748
4.278484
1.403307
2.453412
0.289978
4.619099
2.363045
-0.991670
-1.681222
-2.043307
3.870606
1.670610
-2.981802
3.443999
-2.011534
1.324205
-2.670304
-2.096564
0.031292
-1.815862
-1.947839
-4.637988
-0.747910
-14.115641
-3.733266
-2.309481
-4.573927
3.370152
3.651358
1.194048
-0.567983
-4.486113
0.654555
2.700595
-1.088046
-4.659989
4.118314
2.498903
4.616221
-0.152935
4.078383
4.057200
0.786958
-1.543170
3.111717
-1.841299
3.945103
0.874272
-1.189493
-2.779176
2.490448
-5.492010
-1.552655
6.794054
1.325828
2.300696
1.004476
-2.451965
7.945282
-1.988073
-9.135077
-6.779478
-4.738193
1.245482
2.686625
5.139214
4.953773
-0.444532
-3.098237
1.323377
-0.485288
0.737197
2.430413
0.236922
-1.756838
-2.254795
3.991486
4.418525
0.824795
-0.014647
0.551154
-0.019348
2.898356
2.120393
-6.076726
-2.661481
3.672617
-4.125213
1.486741
-4.938146
-2.781096
-0.588184
0.104611
-9.352850
4.425256
-6.346222
-5.997027
-5.088723
-6.586621
4.198719
5.261573
2.424105
0.620042
-2.963214
-2.434788
-0.436388
-0.395328
-2.684337
0.420026
1.483651
2.799143
-1.056203
-2.625143
0.076435
0.825564
-2.342632
0.468586
2.306827
1.044305
5.193776
0.287030
-3.358783
1.354773
-2.241248
-6.732440
0.787794
-2.705531
-0.643269
3.364015
0.057243
0.122728
-1.727564
-5.814769
-9.694935
-8.814609
2.483692
-34.150734
5.689630
1.475586
-3.649536
-5.719815
-3.554935
-1.712157
3.374257
-2.266139
-1.137534
-2.150944
-2.933955
-0.580380
5.374972
3.389319
1.177512
1.160001
-8.622540
-5.043599
3.333134
2.768078
-3.748666
-6.209794
0.674116
6.700699
0.586503
-9.534606
-10.783479
1.080495
1.040923
-0.302694
3.690408
2.734482
-1.561729
-1.743262
-3.614254
1.901055
9.301568
9.172423
9.084927
-4.114375
-7.259386
0.250667
4.170871
-0.793940
-0.735524
3.848789
0.989588
-1.664543
-3.124070
1.290859
5.049792
8.144958
1.669460
3.616630
11.906767
10.538552
7.788280
9.163969
2.201660
2.224937
-9.962720
-1.533513
2.406509
5.570740
-1.436755
-5.419292
1.017927
3.934290
9.239814
6.660228
1.131176
3.439486
5.101022
0.745391
-0.548409
-0.763682
0.392206
0.816721
-2.572761
-2.978317
-0.728851
0.088733
0.085321
-2.350157
-1.755653
-1.302052
-2.156466
-0.036831
-5.680081
2.538972
-0.069606
-0.124115
-4.344584
-1.517691
-1.069881
0.483128
1.173878
-5.188118
-2.792491
-0.221178
0.110459
-1.956035
0.803354
-0.559198
-1.217782
-6.296692
-9.674920
3.463348
6.210023
-0.129404
4.193366
1.330291
-1.580678
0.207160
2.445848
-3.663006
-3.348070
-2.747774
1.777949
-0.737707
-3.320809
-11.834214
-3.617891
0.426177
3.212023
1.523905
4.485672
-3.178701
-3.688049
2.991564
-3.240705
6.880116
-3.492626
-7.378986
-7.153343
-4.163432
-0.144632
-8.083703
-6.868979
-3.952646
0.315972
0.009029
2.944579
0.045165
7.894807
4.903778
-1.061478
0.369886
2.349103
5.259737
-3.231154
-5.825393
-0.665711
1.573928
2.001597
-1.550989
-2.513851
-3.047757
-0.248258
-2.722493
1.951235
-1.153690
-0.434265
-3.951414
-2.840798
3.057640
1.715601
4.052841
3.672904
-8.267876
0.213400
-0.172450
-6.944834
-5.184947
0.763498
-1.549234
-0.918655
-1.001188
-0.895014
6.692504
3.061780
2.210236
2.514122
0.867817
-0.287679
0.556438
4.308583
1.395561
2.569816
0.891180
-0.175959
0.874559
0.049855
-3.627444
-2.512738
0.127151
1.600075
-0.681048
3.035563
-0.353720
-2.469373
1.401385
4.934364
3.280876
3.173641
-0.791789
-0.200518
-1.154060
-4.393522
-9.356767
-2.872745
-2.330082
0.114144
2.353491
1.447903
1.897895
-18.453400
-1.263219
-3.176693
1.352266
-2.201624
2.713481
-5.833918
1.244362
-6.072238
-3.434450
2.442237
1.593250
10.222599
3.661470
-1.625188
-7.620050
-5.824068
1.829743
0.832829
-1.825608
-2.613738
3.716865
-2.025179
-4.590695
-3.535347
-3.910951
5.964871
4.227993
-4.095633
-4.890429
2.267021
1.453810
1.357485
-7.779770
4.948937
1.385892
3.422120
-0.809286
8.045704
9.383302
8.983222
-6.687207
-1.860037
8.179760
5.034618
2.158638
13.242420
7.203489
-3.088703
-6.621916
-1.515540
1.565468
4.630566
4.112114
1.283916
7.621607
3.247271
6.117626
7.277442
-3.276878
1.048260
2.823927
4.777381
4.587258
1.051782
-7.782298
-3.890699
-3.461530
-4.288568
-4.490276
-5.973904
-1.621202
2.322191
2.428762
6.118940
-0.862077
2.682528
1.970183
1.543530
2.353695
-3.219417
1.683672
-3.225464
0.979576
-1.223479
-6.697854
-10.234353
-0.178185
0.804549
0.415814
0.659026
-2.693912
-1.832990
2.430051
-3.078748
-14.393728
0.007523
2.258660
2.574738
1.813625
2.053962
-3.780630
0.384486
6.686973
1.766308
-2.425809
-1.568717
-0.379837
3.179209
3.893909
-6.119430
-5.815831
-0.256622
2.342101
4.875822
1.259802
0.637314
-3.164368
-2.925271
-5.237640
-3.113820
-3.477486
-5.785980
-1.776888
-0.595662
-1.167834
-1.395133
-8.032645
-4.964751
-0.231243
0.159034
-3.764242
-3.230662
-10.490355
-1.435432
1.626494
1.967562
-1.698980
3.048076
2.614868
0.322350
-5.771547
-3.350300
6.385886
5.408245
4.857720
1.697180
2.425936
-2.479486
-1.787833
2.616319
-2.794726
-12.020054
1.167270
0.050629
-1.504257
-0.292687
-1.796873
-4.718965
1.393905
-1.140053
-2.418590
-7.266253
-3.246583
-3.882874
3.653368
1.645784
-4.540987
-4.635145
-3.254736
2.234845
3.272076
-1.341378
-0.322040
0.431974
0.822653
1.247064
-3.911139
-1.068405
-1.784272
4.306157
0.520536
0.203479
-0.837331
-0.527562
-4.148708
1.616829
3.252250
3.654250
4.817892
4.080941
-1.133362
-1.352386
1.194234
-1.968758
-0.267336
1.142577
-1.137111
-3.049344
-5.376514
-4.270039
1.746304
0.702873
-3.992118
-2.970860
-0.038219
-0.885940
0.978420
-0.295944
-1.259839
-2.463671
2.861689
3.614838
-1.317193
-5.012432
-0.639759
0.185350
